digraph Tree {
node [shape=box, style="filled", color="black"] ;
0 [label="BUS_FIRE_TEMP_KEEP_CH03 <= 604.5\ngini = 0.198\nsamples = 2787\nvalue = [310, 2477]\nclass = 양품", fillcolor="#52a9e8"] ;
1 [label="BUS_FIRE_TEMP_ANEAL_CH01 <= 576.5\ngini = 0.188\nsamples = 2763\nvalue = [290, 2473]\nclass = 양품", fillcolor="#50a8e8"] ;
0 -> 1 [labeldistance=2.5, labelangle=45, headlabel="True"] ;
2 [label="BUS_FIRE_TEMP_KEEP_CH03 <= 592.5\ngini = 0.179\nsamples = 2675\nvalue = [265, 2410]\nclass = 양품", fillcolor="#4fa8e8"] ;
1 -> 2 ;
3 [label="BUS_FIRE_TEMP_ANEAL_CH03 <= 519.5\ngini = 0.425\nsamples = 49\nvalue = [15, 34]\nclass = 양품", fillcolor="#90c8f0"] ;
2 -> 3 ;
4 [label="BUS_FIRE_TEMP_ANEAL_CH02 <= 534.5\ngini = 0.298\nsamples = 33\nvalue = [6, 27]\nclass = 양품", fillcolor="#65b3eb"] ;
3 -> 4 ;
5 [label="gini = 0.0\nsamples = 3\nvalue = [3, 0]\nclass = 명점", fillcolor="#e58139"] ;
4 -> 5 ;
6 [label="gini = 0.18\nsamples = 30\nvalue = [3, 27]\nclass = 양품", fillcolor="#4fa8e8"] ;
4 -> 6 ;
7 [label="BUS_FIRE_TEMP_ANEAL_CH02 <= 539.5\ngini = 0.492\nsamples = 16\nvalue = [9, 7]\nclass = 명점", fillcolor="#f9e3d3"] ;
3 -> 7 ;
8 [label="gini = 0.0\nsamples = 6\nvalue = [0, 6]\nclass = 양품", fillcolor="#399de5"] ;
7 -> 8 ;
9 [label="gini = 0.18\nsamples = 10\nvalue = [9, 1]\nclass = 명점", fillcolor="#e88f4f"] ;
7 -> 9 ;
10 [label="BUS_FIRE_TEMP_ANEAL_CH03 <= 520.5\ngini = 0.172\nsamples = 2626\nvalue = [250, 2376]\nclass = 양품", fillcolor="#4ea7e8"] ;
2 -> 10 ;
11 [label="BUS_FIRE_TEMP_ANEAL_CH03 <= 519.5\ngini = 0.168\nsamples = 2592\nvalue = [240, 2352]\nclass = 양품", fillcolor="#4da7e8"] ;
10 -> 11 ;
12 [label="gini = 0.177\nsamples = 2059\nvalue = [202, 1857]\nclass = 양품", fillcolor="#4fa8e8"] ;
11 -> 12 ;
13 [label="gini = 0.132\nsamples = 533\nvalue = [38, 495]\nclass = 양품", fillcolor="#48a5e7"] ;
11 -> 13 ;
14 [label="BUS_FIRE_TEMP_KEEP_CH03 <= 600.5\ngini = 0.415\nsamples = 34\nvalue = [10, 24]\nclass = 양품", fillcolor="#8bc6f0"] ;
10 -> 14 ;
15 [label="gini = 0.0\nsamples = 6\nvalue = [6, 0]\nclass = 명점", fillcolor="#e58139"] ;
14 -> 15 ;
16 [label="gini = 0.245\nsamples = 28\nvalue = [4, 24]\nclass = 양품", fillcolor="#5aade9"] ;
14 -> 16 ;
17 [label="BUS_FIRE_TEMP_KEEP_CH03 <= 602.5\ngini = 0.407\nsamples = 88\nvalue = [25, 63]\nclass = 양품", fillcolor="#88c4ef"] ;
1 -> 17 ;
18 [label="BUS_FIRE_TEMP_KEEP_CH02 <= 582.5\ngini = 0.356\nsamples = 82\nvalue = [19, 63]\nclass = 양품", fillcolor="#75bbed"] ;
17 -> 18 ;
19 [label="BUS_FIRE_TEMP_ANEAL_CH02 <= 539.5\ngini = 0.499\nsamples = 19\nvalue = [9, 10]\nclass = 양품", fillcolor="#ebf5fc"] ;
18 -> 19 ;
20 [label="gini = 0.298\nsamples = 11\nvalue = [2, 9]\nclass = 양품", fillcolor="#65b3eb"] ;
19 -> 20 ;
21 [label="gini = 0.219\nsamples = 8\nvalue = [7, 1]\nclass = 명점", fillcolor="#e99355"] ;
19 -> 21 ;
22 [label="BUS_FIRE_TEMP_ANEAL_CH03 <= 517.5\ngini = 0.267\nsamples = 63\nvalue = [10, 53]\nclass = 양품", fillcolor="#5eafea"] ;
18 -> 22 ;
23 [label="gini = 0.0\nsamples = 18\nvalue = [0, 18]\nclass = 양품", fillcolor="#399de5"] ;
22 -> 23 ;
24 [label="gini = 0.346\nsamples = 45\nvalue = [10, 35]\nclass = 양품", fillcolor="#72b9ec"] ;
22 -> 24 ;
25 [label="gini = 0.0\nsamples = 6\nvalue = [6, 0]\nclass = 명점", fillcolor="#e58139"] ;
17 -> 25 ;
26 [label="BUS_FIRE_TEMP_KEEP_CH02 <= 589.5\ngini = 0.278\nsamples = 24\nvalue = [20, 4]\nclass = 명점", fillcolor="#ea9a61"] ;
0 -> 26 [labeldistance=2.5, labelangle=-45, headlabel="False"] ;
27 [label="gini = 0.0\nsamples = 3\nvalue = [0, 3]\nclass = 양품", fillcolor="#399de5"] ;
26 -> 27 ;
28 [label="BUS_FIRE_TEMP_ANEAL_CH01 <= 572.5\ngini = 0.091\nsamples = 21\nvalue = [20, 1]\nclass = 명점", fillcolor="#e68743"] ;
26 -> 28 ;
29 [label="BUS_FIRE_TEMP_ANEAL_CH02 <= 541.5\ngini = 0.32\nsamples = 5\nvalue = [4, 1]\nclass = 명점", fillcolor="#eca06a"] ;
28 -> 29 ;
30 [label="gini = 0.0\nsamples = 4\nvalue = [4, 0]\nclass = 명점", fillcolor="#e58139"] ;
29 -> 30 ;
31 [label="gini = 0.0\nsamples = 1\nvalue = [0, 1]\nclass = 양품", fillcolor="#399de5"] ;
29 -> 31 ;
32 [label="gini = 0.0\nsamples = 16\nvalue = [16, 0]\nclass = 명점", fillcolor="#e58139"] ;
28 -> 32 ;
}