digraph Tree {
node [shape=box, style="filled", color="black"] ;
0 [label="PHOS_FIRE_EXHAUST_HEAT3 <= 4405.5\ngini = 0.198\nsamples = 2787\nvalue = [310, 2477]\nclass = 양품", fillcolor="#52a9e8"] ;
1 [label="PHOS_FIRE_TEMP_ANEAL_CH03 <= 393.5\ngini = 0.43\nsamples = 64\nvalue = [44, 20]\nclass = 명점", fillcolor="#f1ba93"] ;
0 -> 1 [labeldistance=2.5, labelangle=45, headlabel="True"] ;
2 [label="PHOS_FIRE_EXHAUST_HEAT2 <= 4227.0\ngini = 0.254\nsamples = 47\nvalue = [40, 7]\nclass = 명점", fillcolor="#ea975c"] ;
1 -> 2 ;
3 [label="PHOS_FIRE_EXHAUST_HEAT4 <= 2498.5\ngini = 0.13\nsamples = 43\nvalue = [40, 3]\nclass = 명점", fillcolor="#e78a48"] ;
2 -> 3 ;
4 [label="gini = 0.0\nsamples = 27\nvalue = [27, 0]\nclass = 명점", fillcolor="#e58139"] ;
3 -> 4 ;
5 [label="PHOS_FIRE_EXHAUST_HEAT4 <= 2507.0\ngini = 0.305\nsamples = 16\nvalue = [13, 3]\nclass = 명점", fillcolor="#eb9e67"] ;
3 -> 5 ;
6 [label="gini = 0.0\nsamples = 1\nvalue = [0, 1]\nclass = 양품", fillcolor="#399de5"] ;
5 -> 6 ;
7 [label="gini = 0.231\nsamples = 15\nvalue = [13, 2]\nclass = 명점", fillcolor="#e99457"] ;
5 -> 7 ;
8 [label="gini = 0.0\nsamples = 4\nvalue = [0, 4]\nclass = 양품", fillcolor="#399de5"] ;
2 -> 8 ;
9 [label="PHOS_FIRE_EXHAUST_HEAT3 <= 4396.0\ngini = 0.36\nsamples = 17\nvalue = [4, 13]\nclass = 양품", fillcolor="#76bbed"] ;
1 -> 9 ;
10 [label="PHOS_FIRE_EXHAUST_HEAT4 <= 2473.5\ngini = 0.133\nsamples = 14\nvalue = [1, 13]\nclass = 양품", fillcolor="#48a5e7"] ;
9 -> 10 ;
11 [label="gini = 0.32\nsamples = 5\nvalue = [1, 4]\nclass = 양품", fillcolor="#6ab6ec"] ;
10 -> 11 ;
12 [label="gini = 0.0\nsamples = 9\nvalue = [0, 9]\nclass = 양품", fillcolor="#399de5"] ;
10 -> 12 ;
13 [label="gini = 0.0\nsamples = 3\nvalue = [3, 0]\nclass = 명점", fillcolor="#e58139"] ;
9 -> 13 ;
14 [label="PHOS_FIRE_EXHAUST_HEAT4 <= 2489.5\ngini = 0.176\nsamples = 2723\nvalue = [266, 2457]\nclass = 양품", fillcolor="#4ea8e8"] ;
0 -> 14 [labeldistance=2.5, labelangle=-45, headlabel="False"] ;
15 [label="PHOS_FIRE_EXHAUST_HEAT1 <= 4047.5\ngini = 0.394\nsamples = 178\nvalue = [48, 130]\nclass = 양품", fillcolor="#82c1ef"] ;
14 -> 15 ;
16 [label="gini = 0.0\nsamples = 9\nvalue = [9, 0]\nclass = 명점", fillcolor="#e58139"] ;
15 -> 16 ;
17 [label="PHOS_FIRE_EXHAUST_HEAT1 <= 4110.5\ngini = 0.355\nsamples = 169\nvalue = [39, 130]\nclass = 양품", fillcolor="#74baed"] ;
15 -> 17 ;
18 [label="PHOS_FIRE_TEMP_ANEAL_CH01 <= 442.5\ngini = 0.323\nsamples = 163\nvalue = [33, 130]\nclass = 양품", fillcolor="#6bb6ec"] ;
17 -> 18 ;
19 [label="gini = 0.375\nsamples = 8\nvalue = [6, 2]\nclass = 명점", fillcolor="#eeab7b"] ;
18 -> 19 ;
20 [label="gini = 0.288\nsamples = 155\nvalue = [27, 128]\nclass = 양품", fillcolor="#63b2ea"] ;
18 -> 20 ;
21 [label="gini = 0.0\nsamples = 6\nvalue = [6, 0]\nclass = 명점", fillcolor="#e58139"] ;
17 -> 21 ;
22 [label="PHOS_FIRE_EXHAUST_HEAT1 <= 3616.5\ngini = 0.157\nsamples = 2545\nvalue = [218, 2327]\nclass = 양품", fillcolor="#4ca6e7"] ;
14 -> 22 ;
23 [label="PHOS_FIRE_EXHAUST_HEAT2 <= 4050.0\ngini = 0.5\nsamples = 24\nvalue = [12, 12]\nclass = 명점", fillcolor="#ffffff"] ;
22 -> 23 ;
24 [label="gini = 0.0\nsamples = 7\nvalue = [7, 0]\nclass = 명점", fillcolor="#e58139"] ;
23 -> 24 ;
25 [label="PHOS_FIRE_EXHAUST_HEAT3 <= 4449.0\ngini = 0.415\nsamples = 17\nvalue = [5, 12]\nclass = 양품", fillcolor="#8bc6f0"] ;
23 -> 25 ;
26 [label="gini = 0.245\nsamples = 14\nvalue = [2, 12]\nclass = 양품", fillcolor="#5aade9"] ;
25 -> 26 ;
27 [label="gini = 0.0\nsamples = 3\nvalue = [3, 0]\nclass = 명점", fillcolor="#e58139"] ;
25 -> 27 ;
28 [label="PHOS_FIRE_EXHAUST_HEAT2 <= 4325.5\ngini = 0.15\nsamples = 2521\nvalue = [206, 2315]\nclass = 양품", fillcolor="#4ba6e7"] ;
22 -> 28 ;
29 [label="PHOS_FIRE_EXHAUST_HEAT1 <= 3640.5\ngini = 0.148\nsamples = 2518\nvalue = [203, 2315]\nclass = 양품", fillcolor="#4aa6e7"] ;
28 -> 29 ;
30 [label="gini = 0.249\nsamples = 392\nvalue = [57, 335]\nclass = 양품", fillcolor="#5baee9"] ;
29 -> 30 ;
31 [label="gini = 0.128\nsamples = 2126\nvalue = [146, 1980]\nclass = 양품", fillcolor="#48a4e7"] ;
29 -> 31 ;
32 [label="gini = 0.0\nsamples = 3\nvalue = [3, 0]\nclass = 명점", fillcolor="#e58139"] ;
28 -> 32 ;
}