digraph Tree {
node [shape=box, style="filled", color="black"] ;
0 [label="TAT_4DIELEC <= 6673.5\ngini = 0.198\nsamples = 2787\nvalue = [2477, 310]\nclass = 양품", fillcolor="#e89152"] ;
1 [label="TAT_3BUS <= 6969.5\ngini = 0.165\nsamples = 2695\nvalue = [2451, 244]\nclass = 양품", fillcolor="#e88e4d"] ;
0 -> 1 [labeldistance=2.5, labelangle=45, headlabel="True"] ;
2 [label="TAT_2AG <= 297.5\ngini = 0.278\nsamples = 12\nvalue = [2, 10]\nclass = 명점", fillcolor="#61b1ea"] ;
1 -> 2 ;
3 [label="gini = 0.0\nsamples = 2\nvalue = [2, 0]\nclass = 양품", fillcolor="#e58139"] ;
2 -> 3 ;
4 [label="gini = 0.0\nsamples = 10\nvalue = [0, 10]\nclass = 명점", fillcolor="#399de5"] ;
2 -> 4 ;
5 [label="TAT_6PHOS <= 7879.5\ngini = 0.159\nsamples = 2683\nvalue = [2449, 234]\nclass = 양품", fillcolor="#e78d4c"] ;
1 -> 5 ;
6 [label="TAT_3BUS <= 7132.0\ngini = 0.302\nsamples = 367\nvalue = [299, 68]\nclass = 양품", fillcolor="#eb9e66"] ;
5 -> 6 ;
7 [label="gini = 0.499\nsamples = 27\nvalue = [14, 13]\nclass = 양품", fillcolor="#fdf6f1"] ;
6 -> 7 ;
8 [label="gini = 0.271\nsamples = 340\nvalue = [285, 55]\nclass = 양품", fillcolor="#ea995f"] ;
6 -> 8 ;
9 [label="TAT_8AGING <= 10639.5\ngini = 0.133\nsamples = 2316\nvalue = [2150, 166]\nclass = 양품", fillcolor="#e78b48"] ;
5 -> 9 ;
10 [label="gini = 0.128\nsamples = 2304\nvalue = [2145, 159]\nclass = 양품", fillcolor="#e78a48"] ;
9 -> 10 ;
11 [label="gini = 0.486\nsamples = 12\nvalue = [5, 7]\nclass = 명점", fillcolor="#c6e3f8"] ;
9 -> 11 ;
12 [label="TAT_4DIELEC <= 8217.0\ngini = 0.405\nsamples = 92\nvalue = [26, 66]\nclass = 명점", fillcolor="#87c4ef"] ;
0 -> 12 [labeldistance=2.5, labelangle=-45, headlabel="False"] ;
13 [label="TAT_3BUS <= 7129.0\ngini = 0.25\nsamples = 75\nvalue = [11, 64]\nclass = 명점", fillcolor="#5baee9"] ;
12 -> 13 ;
14 [label="TAT_3BUS <= 7123.0\ngini = 0.444\nsamples = 18\nvalue = [6, 12]\nclass = 명점", fillcolor="#9ccef2"] ;
13 -> 14 ;
15 [label="gini = 0.142\nsamples = 13\nvalue = [1, 12]\nclass = 명점", fillcolor="#49a5e7"] ;
14 -> 15 ;
16 [label="gini = 0.0\nsamples = 5\nvalue = [5, 0]\nclass = 양품", fillcolor="#e58139"] ;
14 -> 16 ;
17 [label="TAT_5MGO <= 525.0\ngini = 0.16\nsamples = 57\nvalue = [5, 52]\nclass = 명점", fillcolor="#4ca6e8"] ;
13 -> 17 ;
18 [label="gini = 0.0\nsamples = 1\nvalue = [1, 0]\nclass = 양품", fillcolor="#e58139"] ;
17 -> 18 ;
19 [label="gini = 0.133\nsamples = 56\nvalue = [4, 52]\nclass = 명점", fillcolor="#48a5e7"] ;
17 -> 19 ;
20 [label="TAT_6PHOS <= 7866.0\ngini = 0.208\nsamples = 17\nvalue = [15, 2]\nclass = 양품", fillcolor="#e89253"] ;
12 -> 20 ;
21 [label="gini = 0.0\nsamples = 2\nvalue = [0, 2]\nclass = 명점", fillcolor="#399de5"] ;
20 -> 21 ;
22 [label="gini = 0.0\nsamples = 15\nvalue = [15, 0]\nclass = 양품", fillcolor="#e58139"] ;
20 -> 22 ;
}