digraph Tree {
node [shape=box, style="filled", color="black"] ;
0 [label="AG_RTD_PRES_END <= 308.65\ngini = 0.193\nsamples = 1760\nvalue = [302, 2485]\nclass = 양품", fillcolor="#51a9e8"] ;
1 [label="AG_RTD_TEMP_HOOD_START <= 91.85\ngini = 0.476\nsamples = 26\nvalue = [16, 25]\nclass = 양품", fillcolor="#b8dcf6"] ;
0 -> 1 [labeldistance=2.5, labelangle=45, headlabel="True"] ;
2 [label="gini = 0.0\nsamples = 4\nvalue = [7, 0]\nclass = 명점", fillcolor="#e58139"] ;
1 -> 2 ;
3 [label="AG_RTD_TEMP_WALL_START <= 80.5\ngini = 0.389\nsamples = 22\nvalue = [9, 25]\nclass = 양품", fillcolor="#80c0ee"] ;
1 -> 3 ;
4 [label="AG_RTD_TEMP_WALL_MAX <= 102.4\ngini = 0.342\nsamples = 21\nvalue = [7, 25]\nclass = 양품", fillcolor="#70b8ec"] ;
3 -> 4 ;
5 [label="gini = 0.434\nsamples = 14\nvalue = [7, 15]\nclass = 양품", fillcolor="#95cbf1"] ;
4 -> 5 ;
6 [label="gini = 0.0\nsamples = 7\nvalue = [0, 10]\nclass = 양품", fillcolor="#399de5"] ;
4 -> 6 ;
7 [label="gini = 0.0\nsamples = 1\nvalue = [2, 0]\nclass = 명점", fillcolor="#e58139"] ;
3 -> 7 ;
8 [label="AG_RTD_TEMP_WALL_START <= 78.05\ngini = 0.187\nsamples = 1734\nvalue = [286, 2460]\nclass = 양품", fillcolor="#50a8e8"] ;
0 -> 8 [labeldistance=2.5, labelangle=-45, headlabel="False"] ;
9 [label="AG_RTD_TEMP_GLASS_OUT <= 47.65\ngini = 0.139\nsamples = 1257\nvalue = [149, 1832]\nclass = 양품", fillcolor="#49a5e7"] ;
8 -> 9 ;
10 [label="AG_RTD_TEMP_WALL_MAX <= 100.05\ngini = 0.084\nsamples = 1199\nvalue = [84, 1819]\nclass = 양품", fillcolor="#42a2e6"] ;
9 -> 10 ;
11 [label="gini = 0.202\nsamples = 62\nvalue = [12, 93]\nclass = 양품", fillcolor="#53aae8"] ;
10 -> 11 ;
12 [label="gini = 0.077\nsamples = 1137\nvalue = [72, 1726]\nclass = 양품", fillcolor="#41a1e6"] ;
10 -> 12 ;
13 [label="AG_RTD_TEMP_WALL_START <= 76.5\ngini = 0.278\nsamples = 58\nvalue = [65, 13]\nclass = 명점", fillcolor="#ea9a61"] ;
9 -> 13 ;
14 [label="gini = 0.444\nsamples = 9\nvalue = [4, 8]\nclass = 양품", fillcolor="#9ccef2"] ;
13 -> 14 ;
15 [label="gini = 0.14\nsamples = 49\nvalue = [61, 5]\nclass = 명점", fillcolor="#e78b49"] ;
13 -> 15 ;
16 [label="AG_RTD_TEMP_GLASS_START <= 46.95\ngini = 0.294\nsamples = 477\nvalue = [137, 628]\nclass = 양품", fillcolor="#64b2eb"] ;
8 -> 16 ;
17 [label="AG_RTD_PRES_END <= 325.8\ngini = 0.268\nsamples = 423\nvalue = [108, 570]\nclass = 양품", fillcolor="#5fb0ea"] ;
16 -> 17 ;
18 [label="gini = 0.0\nsamples = 2\nvalue = [3, 0]\nclass = 명점", fillcolor="#e58139"] ;
17 -> 18 ;
19 [label="gini = 0.263\nsamples = 421\nvalue = [105, 570]\nclass = 양품", fillcolor="#5dafea"] ;
17 -> 19 ;
20 [label="AG_RTD_TEMP_HOOD_MAX <= 93.45\ngini = 0.444\nsamples = 54\nvalue = [29, 58]\nclass = 양품", fillcolor="#9ccef2"] ;
16 -> 20 ;
21 [label="gini = 0.16\nsamples = 36\nvalue = [5, 52]\nclass = 양품", fillcolor="#4ca6e8"] ;
20 -> 21 ;
22 [label="gini = 0.32\nsamples = 18\nvalue = [24, 6]\nclass = 명점", fillcolor="#eca06a"] ;
20 -> 22 ;
}