digraph Tree {
node [shape=box, style="filled", color="black"] ;
0 [label="DIELEC_FIRE_EXHAUST_HEAT3 <= 2261.5\ngini = 0.202\nsamples = 1766\nvalue = [317, 2470]\nclass = 양품", fillcolor="#52aae8"] ;
1 [label="DIELEC_FIRE_TEMP_KEEP_CH01 <= 574.5\ngini = 0.499\nsamples = 43\nvalue = [29, 32]\nclass = 양품", fillcolor="#ecf6fd"] ;
0 -> 1 [labeldistance=2.5, labelangle=45, headlabel="True"] ;
2 [label="DIELEC_FIRE_TEMP_KEEP_CH01 <= 572.5\ngini = 0.375\nsamples = 18\nvalue = [21, 7]\nclass = 명점", fillcolor="#eeab7b"] ;
1 -> 2 ;
3 [label="DIELEC_FIRE_TEMP_ANEAL_CH02 <= 558.5\ngini = 0.48\nsamples = 8\nvalue = [4, 6]\nclass = 양품", fillcolor="#bddef6"] ;
2 -> 3 ;
4 [label="gini = 0.32\nsamples = 4\nvalue = [4, 1]\nclass = 명점", fillcolor="#eca06a"] ;
3 -> 4 ;
5 [label="gini = 0.0\nsamples = 4\nvalue = [0, 5]\nclass = 양품", fillcolor="#399de5"] ;
3 -> 5 ;
6 [label="DIELEC_FIRE_EXHAUST_HEAT2 <= 2149.0\ngini = 0.105\nsamples = 10\nvalue = [17, 1]\nclass = 명점", fillcolor="#e78845"] ;
2 -> 6 ;
7 [label="gini = 0.0\nsamples = 9\nvalue = [17, 0]\nclass = 명점", fillcolor="#e58139"] ;
6 -> 7 ;
8 [label="gini = 0.0\nsamples = 1\nvalue = [0, 1]\nclass = 양품", fillcolor="#399de5"] ;
6 -> 8 ;
9 [label="DIELEC_FIRE_TEMP_ANEAL_CH03 <= 537.5\ngini = 0.367\nsamples = 25\nvalue = [8, 25]\nclass = 양품", fillcolor="#78bced"] ;
1 -> 9 ;
10 [label="DIELEC_FIRE_EXHAUST_HEAT4 <= 3068.5\ngini = 0.238\nsamples = 21\nvalue = [4, 25]\nclass = 양품", fillcolor="#59ade9"] ;
9 -> 10 ;
11 [label="gini = 0.0\nsamples = 1\nvalue = [1, 0]\nclass = 명점", fillcolor="#e58139"] ;
10 -> 11 ;
12 [label="gini = 0.191\nsamples = 20\nvalue = [3, 25]\nclass = 양품", fillcolor="#51a9e8"] ;
10 -> 12 ;
13 [label="gini = 0.0\nsamples = 4\nvalue = [4, 0]\nclass = 명점", fillcolor="#e58139"] ;
9 -> 13 ;
14 [label="DIELEC_FIRE_EXHAUST_HEAT5 <= 3239.5\ngini = 0.189\nsamples = 1723\nvalue = [288, 2438]\nclass = 양품", fillcolor="#50a9e8"] ;
0 -> 14 [labeldistance=2.5, labelangle=-45, headlabel="False"] ;
15 [label="DIELEC_FIRE_EXHAUST_HEAT2 <= 2272.0\ngini = 0.36\nsamples = 36\nvalue = [39, 12]\nclass = 명점", fillcolor="#eda876"] ;
14 -> 15 ;
16 [label="DIELEC_FIRE_EXHAUST_HEAT6 <= 3282.5\ngini = 0.282\nsamples = 33\nvalue = [39, 8]\nclass = 명점", fillcolor="#ea9b62"] ;
15 -> 16 ;
17 [label="gini = 0.258\nsamples = 32\nvalue = [39, 7]\nclass = 명점", fillcolor="#ea985d"] ;
16 -> 17 ;
18 [label="gini = 0.0\nsamples = 1\nvalue = [0, 1]\nclass = 양품", fillcolor="#399de5"] ;
16 -> 18 ;
19 [label="gini = 0.0\nsamples = 3\nvalue = [0, 4]\nclass = 양품", fillcolor="#399de5"] ;
15 -> 19 ;
20 [label="DIELEC_FIRE_TEMP_ANEAL_CH03 <= 537.5\ngini = 0.169\nsamples = 1687\nvalue = [249, 2426]\nclass = 양품", fillcolor="#4da7e8"] ;
14 -> 20 ;
21 [label="DIELEC_FIRE_EXHAUST_HEAT2 <= 2159.5\ngini = 0.151\nsamples = 1578\nvalue = [206, 2301]\nclass = 양품", fillcolor="#4ba6e7"] ;
20 -> 21 ;
22 [label="gini = 0.225\nsamples = 528\nvalue = [109, 733]\nclass = 양품", fillcolor="#56ace9"] ;
21 -> 22 ;
23 [label="gini = 0.11\nsamples = 1050\nvalue = [97, 1568]\nclass = 양품", fillcolor="#45a3e7"] ;
21 -> 23 ;
24 [label="DIELEC_FIRE_EXHAUST_HEAT5 <= 3773.0\ngini = 0.381\nsamples = 109\nvalue = [43, 125]\nclass = 양품", fillcolor="#7dbfee"] ;
20 -> 24 ;
25 [label="gini = 0.42\nsamples = 10\nvalue = [14, 6]\nclass = 명점", fillcolor="#f0b78e"] ;
24 -> 25 ;
26 [label="gini = 0.315\nsamples = 99\nvalue = [29, 119]\nclass = 양품", fillcolor="#69b5eb"] ;
24 -> 26 ;
}